r ꝓ 0.5000000
p ꝓ 0.5000000
NULL t 0.0162956
r t 0.0000624
d t 0.0014134
i t 0.0000831
c t 0.0006651
£ t 0.0000624
a t 0.0000624
s t 0.0011640
h t 0.0000208
y t 0.0000208
l t 0.0000208
t t 0.9800877
p t 0.0000416
t h 0.0000585
- h 0.0000585
f h 0.0002927
w h 0.0000293
y h 0.0000293
h h 0.9811763
o h 0.0000293
£ h 0.0000293
& h 0.0000878
e h 0.0000585
NULL h 0.0179748
k h 0.0001171
i h 0.0000293
z h 0.0000293
j g 0.0007566
g g 0.9758971
£ g 0.0001081
a g 0.0001081
NULL g 0.0222655
k g 0.0001081
c g 0.0003243
z g 0.0004323
b b 0.9829003
p b 0.0003977
& b 0.0001326
r b 0.0001326
NULL b 0.0164369
— — 1.0000000
e e 0.8071278
n e 0.0000276
c e 0.0000138
i e 0.0059260
d e 0.0000965
NULL e 0.1737573
t e 0.0000276
w e 0.0000138
g e 0.0002343
h e 0.0002894
u e 0.0010474
s e 0.0000551
a e 0.0069183
o e 0.0024669
; e 0.0012128
’ e 0.0000276
f e 0.0000138
y e 0.0007442
3 3 1.0000000
s NULL 0.0647771
a NULL 0.0891753
£ NULL 0.1550046
o NULL 0.0743785
; NULL 0.0163751
x NULL 0.0006576
j NULL 0.0010522
0 NULL 0.0000658
v NULL 0.0054584
& NULL 0.0203867
, NULL 0.0000658
m NULL 0.0146653
d NULL 0.0232145
p NULL 0.0313692
l NULL 0.0222281
w NULL 0.0090096
u NULL 0.0325529
2 NULL 0.0000658
r NULL 0.0345258
5 NULL 0.0000658
k NULL 0.0034855
q NULL 0.0005261
9 NULL 0.0000658
1 NULL 0.0001315
- NULL 0.0003946
f NULL 0.0128896
y NULL 0.0105222
b NULL 0.0089438
e NULL 0.1417861
n NULL 0.0423517
c NULL 0.0143364
i NULL 0.0501776
t NULL 0.0536630
g NULL 0.0170328
h NULL 0.0485992
u i 0.0003691
w i 0.0001845
g i 0.0000615
l i 0.0003691
t i 0.0001230
NULL i 0.0157475
i i 0.9213853
n i 0.0002461
c i 0.0000308
e i 0.0081506
& i 0.0001845
j i 0.0208840
y i 0.0318949
’ i 0.0000308
; i 0.0000308
o i 0.0002461
a i 0.0000615
u n 0.0001137
h n 0.0000284
w n 0.0000284
t n 0.0000284
p n 0.0001705
NULL n 0.0182991
d n 0.0000284
n n 0.9804791
m n 0.0000284
£ n 0.0003694
& n 0.0003410
v n 0.0000284
s n 0.0000568
NULL c 0.0173383
k c 0.0007224
d c 0.0001605
i c 0.0000803
c c 0.9651629
b c 0.0000803
s c 0.0032108
x c 0.0004013
g c 0.0006422
t c 0.0118799
q c 0.0003211
f f 0.9828613
v f 0.0020596
s f 0.0001471
p f 0.0003678
NULL f 0.0142700
h f 0.0002942
NULL 1 0.0298507
1 1 0.9701493
e - 0.0058140
- - 0.3662791
NULL - 0.6220930
æ - 0.0058140
6 6 1.0000000
NULL 9 0.0833333
9 9 0.9166667
c q 0.0787402
NULL q 0.0183727
q q 0.9028871
& à 0.3333333
à à 0.6666667
﻿ ﻿ 1.0000000
h þ 0.5000000
t þ 0.5000000
u y 0.0005329
j y 0.0002284
y y 0.6321559
l y 0.0003045
t y 0.0010658
NULL y 0.0262637
i y 0.3176766
c y 0.0003045
n y 0.0000761
o y 0.0003806
& y 0.0002284
a y 0.0001523
e y 0.0206303
NULL ϸ 0.0068871
h ϸ 0.4958678
t ϸ 0.4972452
r ꝑ 0.2857143
p ꝑ 0.2857143
ꝑ ꝑ 0.4285714
a k 0.0006179
q k 0.0009268
k k 0.9323448
NULL k 0.0401606
h k 0.0052518
c k 0.0206982
a ● 0.1818182
o ● 0.1818182
f ● 0.0909091
c ● 0.1818182
i ● 0.1818182
● ● 0.0909091
d ● 0.0909091
r r 0.9818070
NULL r 0.0175445
; r 0.0001024
m r 0.0003072
i r 0.0001365
x r 0.0000341
t r 0.0000341
p r 0.0000341
5 5 0.9629630
NULL 5 0.0370370
z z 0.8247423
a z 0.0103093
s z 0.1649485
8 8 1.0000000
2 2 0.9850746
NULL 2 0.0149254
s l 0.0000479
l l 0.9835610
z l 0.0000479
NULL l 0.0162473
j l 0.0000959
NULL ꝭ 0.5000000
ꝭ ꝭ 0.2500000
s ꝭ 0.2500000
b p 0.0002114
p p 0.9748441
s p 0.0001057
f p 0.0006342
NULL p 0.0242046
w u 0.0058620
h u 0.0004690
u u 0.7365613
p u 0.0000586
f u 0.0005276
l u 0.0011724
n u 0.0004103
i u 0.0001759
k u 0.0001759
NULL u 0.0398030
v u 0.2111495
e u 0.0004103
o u 0.0032241
▪ ▪ 1.0000000
4 4 1.0000000
o w 0.0010598
l w 0.0010598
NULL w 0.0145189
u w 0.0273421
w w 0.9558075
m w 0.0002120
NULL & 0.0269300
e & 0.0718133
& & 0.9012567
v v 0.5893344
6 v 0.0003893
u v 0.3927598
NULL v 0.0140132
w v 0.0023355
7 v 0.0011678
0 0 0.9811321
NULL 0 0.0188679
a æ 0.6666667
æ æ 0.3333333
h d 0.0002059
t d 0.0009779
f d 0.0000515
d d 0.9797735
NULL d 0.0181678
n d 0.0000515
£ d 0.0003088
& d 0.0003603
a d 0.0001029
1 7 0.1176471
7 7 0.7647059
2 7 0.1176471
n m 0.0011196
m m 0.9778489
NULL m 0.0200720
j m 0.0000800
& m 0.0000800
p m 0.0003998
b m 0.0003998
¶ ¶ 1.0000000
, , 0.9090909
NULL , 0.0909091
NULL ̄ 0.2173913
m ̄ 0.1739130
n ̄ 0.4347826
i ̄ 0.1304348
& ̄ 0.0434783
g ʒ 1.0000000
e é 0.9900000
i é 0.0100000
♂ ♂ 1.0000000
7 j 0.0194805
i j 0.0909091
n j 0.0389610
2 j 0.0389610
NULL j 0.0064935
3 j 0.0064935
j j 0.7857143
6 j 0.0129870
£ x 0.0013624
s x 0.0013624
k x 0.0027248
NULL x 0.0136240
n x 0.0027248
x x 0.9782016
c o 0.0000260
i o 0.0003383
NULL o 0.0169655
a o 0.0016133
e o 0.0004424
o o 0.9767115
h o 0.0001041
u o 0.0037990
r £ 0.0000075
d £ 0.0000075
; £ 0.0000374
NULL £ 0.0158344
e £ 0.0000075
p £ 0.0000075
£ £ 0.9840983
c a 0.0000261
i a 0.0003391
r a 0.0000522
d a 0.0002348
NULL a 0.0197465
a a 0.9702108
e a 0.0059213
o a 0.0020086
u a 0.0006260
t a 0.0007043
l a 0.0001304
f s 0.0001242
t s 0.0000621
s s 0.9773115
k s 0.0000310
NULL s 0.0195847
z s 0.0003414
i s 0.0000931
c s 0.0024520
t ; 0.0017953
; ; 0.9012567
NULL ; 0.0969479
