ꝓ r 0.0000341
ꝓ p 0.0001028
t NULL 0.0336697
t r 0.0001024
t d 0.0034909
t i 0.0001130
t c 0.0025676
t £ 0.0000224
t a 0.0000767
t s 0.0017179
t h 0.0000288
t y 0.0001046
t l 0.0000478
t t 0.9709456
t p 0.0002056
h t 0.0000412
h - 0.0281690
h f 0.0007358
h w 0.0001079
h y 0.0001046
h h 0.9662131
h o 0.0000256
h £ 0.0000075
h & 0.0035419
h e 0.0000324
h NULL 0.0263689
h k 0.0012941
h i 0.0000283
h z 0.0103093
g j 0.0084439
g g 0.9691928
g £ 0.0000075
g a 0.0000256
g NULL 0.0088469
g k 0.0003235
g c 0.0002407
g z 0.0412371
b b 0.9809499
b p 0.0003084
b & 0.0011806
b r 0.0000341
b NULL 0.0053253
— — 1.0000000
e e 0.9499449
e n 0.0000568
e c 0.0000802
e i 0.0121520
e d 0.0003594
e NULL 0.5414645
e t 0.0000412
e w 0.0001079
e g 0.0018248
e h 0.0006054
e u 0.0052069
e s 0.0001227
e a 0.0128287
e o 0.0045893
e ; 0.1037736
e ’ 0.6666667
e f 0.0000736
e y 0.0056503
3 3 0.9714286
NULL s 0.0302175
NULL a 0.0346528
NULL £ 0.0175959
NULL o 0.0289970
NULL ; 0.2936321
NULL x 0.0136240
NULL j 0.0193004
NULL 0 0.0188679
NULL v 0.0158761
NULL & 0.3659976
NULL , 0.0909091
NULL m 0.0178872
NULL d 0.0181221
NULL p 0.0490388
NULL l 0.0161630
NULL w 0.0147773
NULL u 0.0339134
NULL 2 0.0133333
NULL r 0.0179187
NULL 5 0.0370370
NULL k 0.0171466
NULL q 0.0222841
NULL 9 0.0833333
NULL 1 0.0289855
NULL - 0.0845070
NULL f 0.0144224
NULL y 0.0167417
NULL b 0.0179918
NULL e 0.0349705
NULL n 0.0182949
NULL c 0.0174918
NULL i 0.0215628
NULL t 0.0168026
NULL g 0.0278016
NULL h 0.0213042
i u 0.0008221
i w 0.0006472
i g 0.0002147
i l 0.0005738
i t 0.0000824
i NULL 0.0219884
i i 0.8466017
i n 0.0002273
i c 0.0000802
i e 0.0042983
i & 0.0070838
i j 0.8190591
i y 0.1085069
i ’ 0.3333333
i ; 0.0011792
i o 0.0002051
i a 0.0000511
n u 0.0002740
n h 0.0000288
n w 0.0001079
n t 0.0000206
n p 0.0006168
n NULL 0.0276573
n d 0.0000513
n n 0.9802562
n m 0.0000802
n £ 0.0000970
n & 0.0141677
n v 0.0001913
n s 0.0000614
c NULL 0.0092764
c k 0.0029117
c d 0.0001027
c i 0.0000283
c c 0.9647757
c b 0.0001323
c s 0.0012271
c x 0.0068120
c g 0.0008587
c t 0.0030475
c q 0.0111421
f f 0.9832230
f v 0.0053558
f s 0.0000614
f p 0.0005140
f NULL 0.0083315
f h 0.0001153
1 NULL 0.0000859
1 1 0.9420290
- e 0.0000162
- - 0.8873239
- NULL 0.0045952
- æ 0.5000000
6 6 0.8846154
9 NULL 0.0000429
9 9 0.9166667
q c 0.0024071
q NULL 0.0003006
q q 0.9582173
à & 0.0011806
à à 1.0000000
﻿ ﻿ 1.0000000
þ h 0.0003748
þ t 0.0002677
y u 0.0004796
y j 0.0036188
y y 0.8688919
y l 0.0001913
y t 0.0002883
y NULL 0.0148164
y i 0.1179313
y c 0.0003210
y n 0.0000284
y o 0.0001282
y & 0.0035419
y a 0.0000511
y e 0.0043956
ϸ NULL 0.0002147
ϸ h 0.0103782
ϸ t 0.0074335
ꝑ r 0.0000683
ꝑ p 0.0002056
ꝑ ꝑ 1.0000000
k a 0.0000511
k q 0.0083565
k k 0.9763830
k NULL 0.0055830
k h 0.0004901
k c 0.0053759
● a 0.0000511
● o 0.0000513
● f 0.0000736
● c 0.0001605
● i 0.0000565
● ● 1.0000000
● d 0.0000513
r r 0.9817400
r NULL 0.0220743
r ; 0.0035377
r m 0.0007219
r i 0.0001130
r x 0.0013624
r t 0.0000206
r p 0.0001028
5 5 0.9629630
5 NULL 0.0000429
z z 0.8247423
z a 0.0000256
z s 0.0004908
8 8 1.0000000
2 2 0.8800000
2 NULL 0.0000429
l s 0.0000307
l l 0.9813504
l z 0.0103093
l NULL 0.0145587
l j 0.0024125
ꝭ NULL 0.0000859
ꝭ ꝭ 1.0000000
ꝭ s 0.0000307
p b 0.0002646
p p 0.9481855
p s 0.0000307
p f 0.0004415
p NULL 0.0098347
u w 0.0107863
u h 0.0002306
u u 0.8608523
u p 0.0001028
u f 0.0006623
u l 0.0009564
u n 0.0001989
u i 0.0000848
u k 0.0009706
u NULL 0.0291604
u v 0.6889824
u e 0.0001135
u o 0.0014101
▪ ▪ 1.0000000
4 4 1.0000000
w o 0.0002564
w l 0.0004782
w NULL 0.0058836
w u 0.0176761
w w 0.9728185
w m 0.0001604
& NULL 0.0006442
& e 0.0006488
& & 0.5926800
v v 0.2895945
v 6 0.0384615
v u 0.0691285
v NULL 0.0015461
v w 0.0006472
v 7 0.1578947
0 0 0.9811321
0 NULL 0.0000429
æ a 0.0000511
æ æ 0.5000000
d h 0.0001153
d t 0.0003912
d f 0.0000736
d d 0.9773089
d NULL 0.0151600
d n 0.0000284
d £ 0.0000448
d & 0.0082645
d a 0.0000511
7 1 0.0289855
7 7 0.6842105
7 2 0.0266667
m n 0.0003977
m m 0.9808294
m NULL 0.0107795
m j 0.0012063
m & 0.0011806
m p 0.0005140
m b 0.0006615
¶ ¶ 1.0000000
, , 0.9090909
, NULL 0.0000429
̄ NULL 0.0002147
̄ m 0.0003208
̄ n 0.0002841
̄ i 0.0000848
̄ & 0.0011806
ʒ g 0.0001073
é e 0.0016058
é i 0.0000283
♂ ♂ 1.0000000
j 7 0.1578947
j i 0.0003956
j n 0.0001704
j 2 0.0800000
j NULL 0.0000429
j 3 0.0285714
j j 0.1459590
j 6 0.0769231
x £ 0.0000075
x s 0.0000307
x k 0.0006470
x NULL 0.0004295
x n 0.0000568
x x 0.9782016
o c 0.0000802
o i 0.0003674
o NULL 0.0280009
o a 0.0015844
o e 0.0002757
o o 0.9623628
o h 0.0001153
o u 0.0100027
£ r 0.0000341
£ d 0.0000513
£ ; 0.0058962
£ NULL 0.0909169
£ e 0.0000162
£ p 0.0001028
£ £ 0.9822175
a c 0.0000802
a i 0.0003674
a r 0.0000683
a d 0.0004620
a NULL 0.0325102
a a 0.9504996
a e 0.0036820
a o 0.0019742
a u 0.0016443
a t 0.0005560
a l 0.0002391
s f 0.0002943
s t 0.0000412
s s 0.9659785
s k 0.0003235
s NULL 0.0270990
s z 0.1134021
s i 0.0000848
s c 0.0063388
; t 0.0000206
; ; 0.5919811
; NULL 0.0023191
